digraph Tree {
node [shape=box, style="filled", color="black"] ;
0 [label="ap_hi <= 129.5\ngini = 0.5\nsamples = 49000\nvalue = [24531, 24469]", fillcolor="#fffffe"] ;
1 [label="age <= 19931.5\ngini = 0.433\nsamples = 28925\nvalue = [19758, 9167]", fillcolor="#f1bb95"] ;
0 -> 1 [labeldistance=2.5, labelangle=45, headlabel="True"] ;
2 [label="cholesterol_3 <= 0.5\ngini = 0.359\nsamples = 17715\nvalue = [13555, 4160]", fillcolor="#eda876"] ;
1 -> 2 ;
3 [label="age <= 16184.5\ngini = 0.343\nsamples = 16968\nvalue = [13235, 3733]", fillcolor="#eca571"] ;
2 -> 3 ;
4 [label="cholesterol_2 <= 0.5\ngini = 0.245\nsamples = 5039\nvalue = [4319, 720]", fillcolor="#e9965a"] ;
3 -> 4 ;
5 [label="ap_hi <= 114.5\ngini = 0.224\nsamples = 4556\nvalue = [3972, 584]", fillcolor="#e99456"] ;
4 -> 5 ;
6 [label="gini = 0.158\nsamples = 1937\nvalue = [1770, 167]", fillcolor="#e78d4c"] ;
5 -> 6 ;
7 [label="gini = 0.268\nsamples = 2619\nvalue = [2202, 417]", fillcolor="#ea995e"] ;
5 -> 7 ;
8 [label="weight <= 73.5\ngini = 0.405\nsamples = 483\nvalue = [347, 136]", fillcolor="#efb287"] ;
4 -> 8 ;
9 [label="gini = 0.334\nsamples = 283\nvalue = [223, 60]", fillcolor="#eca36e"] ;
8 -> 9 ;
10 [label="gini = 0.471\nsamples = 200\nvalue = [124, 76]", fillcolor="#f5ceb2"] ;
8 -> 10 ;
11 [label="ap_hi <= 119.5\ngini = 0.378\nsamples = 11929\nvalue = [8916, 3013]", fillcolor="#eeac7c"] ;
3 -> 11 ;
12 [label="weight <= 64.5\ngini = 0.313\nsamples = 3953\nvalue = [3184, 769]", fillcolor="#eb9f69"] ;
11 -> 12 ;
13 [label="gini = 0.228\nsamples = 1527\nvalue = [1327, 200]", fillcolor="#e99457"] ;
12 -> 13 ;
14 [label="gini = 0.359\nsamples = 2426\nvalue = [1857, 569]", fillcolor="#eda876"] ;
12 -> 14 ;
15 [label="weight <= 82.5\ngini = 0.404\nsamples = 7976\nvalue = [5732, 2244]", fillcolor="#efb287"] ;
11 -> 15 ;
16 [label="gini = 0.391\nsamples = 6622\nvalue = [4857, 1765]", fillcolor="#eeaf81"] ;
15 -> 16 ;
17 [label="gini = 0.457\nsamples = 1354\nvalue = [875, 479]", fillcolor="#f3c6a5"] ;
15 -> 17 ;
18 [label="gluc_3 <= 0.5\ngini = 0.49\nsamples = 747\nvalue = [320, 427]", fillcolor="#cde6f8"] ;
2 -> 18 ;
19 [label="age <= 15161.5\ngini = 0.397\nsamples = 315\nvalue = [86, 229]", fillcolor="#83c2ef"] ;
18 -> 19 ;
20 [label="ap_hi <= 115.0\ngini = 0.475\nsamples = 18\nvalue = [11, 7]", fillcolor="#f6d1b7"] ;
19 -> 20 ;
21 [label="gini = 0.245\nsamples = 7\nvalue = [6, 1]", fillcolor="#e9965a"] ;
20 -> 21 ;
22 [label="gini = 0.496\nsamples = 11\nvalue = [5, 6]", fillcolor="#deeffb"] ;
20 -> 22 ;
23 [label="age <= 19759.0\ngini = 0.378\nsamples = 297\nvalue = [75, 222]", fillcolor="#7cbeee"] ;
19 -> 23 ;
24 [label="gini = 0.361\nsamples = 284\nvalue = [67, 217]", fillcolor="#76bbed"] ;
23 -> 24 ;
25 [label="gini = 0.473\nsamples = 13\nvalue = [8, 5]", fillcolor="#f5d0b5"] ;
23 -> 25 ;
26 [label="weight <= 81.5\ngini = 0.497\nsamples = 432\nvalue = [234, 198]", fillcolor="#fbece1"] ;
18 -> 26 ;
27 [label="ap_hi <= 117.5\ngini = 0.481\nsamples = 335\nvalue = [200, 135]", fillcolor="#f7d6bf"] ;
26 -> 27 ;
28 [label="gini = 0.341\nsamples = 78\nvalue = [61, 17]", fillcolor="#eca470"] ;
27 -> 28 ;
29 [label="gini = 0.497\nsamples = 257\nvalue = [139, 118]", fillcolor="#fbece1"] ;
27 -> 29 ;
30 [label="height <= 171.5\ngini = 0.455\nsamples = 97\nvalue = [34, 63]", fillcolor="#a4d2f3"] ;
26 -> 30 ;
31 [label="gini = 0.348\nsamples = 67\nvalue = [15, 52]", fillcolor="#72b9ec"] ;
30 -> 31 ;
32 [label="gini = 0.464\nsamples = 30\nvalue = [19, 11]", fillcolor="#f4caac"] ;
30 -> 32 ;
33 [label="cholesterol_3 <= 0.5\ngini = 0.494\nsamples = 11210\nvalue = [6203, 5007]", fillcolor="#fae7d9"] ;
1 -> 33 ;
34 [label="age <= 22269.0\ngini = 0.486\nsamples = 10043\nvalue = [5865, 4178]", fillcolor="#f8dbc6"] ;
33 -> 34 ;
35 [label="ap_hi <= 119.5\ngini = 0.471\nsamples = 7445\nvalue = [4622, 2823]", fillcolor="#f5ceb2"] ;
34 -> 35 ;
36 [label="weight <= 69.5\ngini = 0.419\nsamples = 1869\nvalue = [1311, 558]", fillcolor="#f0b78d"] ;
35 -> 36 ;
37 [label="gini = 0.367\nsamples = 1007\nvalue = [763, 244]", fillcolor="#eda978"] ;
36 -> 37 ;
38 [label="gini = 0.463\nsamples = 862\nvalue = [548, 314]", fillcolor="#f4c9aa"] ;
36 -> 38 ;
39 [label="active <= 0.5\ngini = 0.482\nsamples = 5576\nvalue = [3311, 2265]", fillcolor="#f7d7c0"] ;
35 -> 39 ;
40 [label="gini = 0.5\nsamples = 1115\nvalue = [570, 545]", fillcolor="#fef9f6"] ;
39 -> 40 ;
41 [label="gini = 0.474\nsamples = 4461\nvalue = [2741, 1720]", fillcolor="#f5d0b5"] ;
39 -> 41 ;
42 [label="ap_lo <= 78.5\ngini = 0.499\nsamples = 2598\nvalue = [1243, 1355]", fillcolor="#eff7fd"] ;
34 -> 42 ;
43 [label="weight <= 54.5\ngini = 0.491\nsamples = 622\nvalue = [352, 270]", fillcolor="#f9e2d1"] ;
42 -> 43 ;
44 [label="gini = 0.303\nsamples = 59\nvalue = [48, 11]", fillcolor="#eb9e66"] ;
43 -> 44 ;
45 [label="gini = 0.497\nsamples = 563\nvalue = [304, 259]", fillcolor="#fbece2"] ;
43 -> 45 ;
46 [label="active <= 0.5\ngini = 0.495\nsamples = 1976\nvalue = [891, 1085]", fillcolor="#dcedfa"] ;
42 -> 46 ;
47 [label="gini = 0.457\nsamples = 425\nvalue = [150, 275]", fillcolor="#a5d2f3"] ;
46 -> 47 ;
48 [label="gini = 0.499\nsamples = 1551\nvalue = [741, 810]", fillcolor="#eef7fd"] ;
46 -> 48 ;
49 [label="age <= 22258.5\ngini = 0.411\nsamples = 1167\nvalue = [338, 829]", fillcolor="#8ac5f0"] ;
33 -> 49 ;
50 [label="weight <= 68.75\ngini = 0.451\nsamples = 773\nvalue = [266, 507]", fillcolor="#a1d0f3"] ;
49 -> 50 ;
51 [label="height <= 163.5\ngini = 0.495\nsamples = 301\nvalue = [135, 166]", fillcolor="#daedfa"] ;
50 -> 51 ;
52 [label="gini = 0.466\nsamples = 197\nvalue = [73, 124]", fillcolor="#aed7f4"] ;
51 -> 52 ;
53 [label="gini = 0.482\nsamples = 104\nvalue = [62, 42]", fillcolor="#f7d6bf"] ;
51 -> 53 ;
54 [label="gluc_3 <= 0.5\ngini = 0.401\nsamples = 472\nvalue = [131, 341]", fillcolor="#85c3ef"] ;
50 -> 54 ;
55 [label="gini = 0.356\nsamples = 255\nvalue = [59, 196]", fillcolor="#75baed"] ;
54 -> 55 ;
56 [label="gini = 0.443\nsamples = 217\nvalue = [72, 145]", fillcolor="#9bcef2"] ;
54 -> 56 ;
57 [label="height <= 186.0\ngini = 0.299\nsamples = 394\nvalue = [72, 322]", fillcolor="#65b3eb"] ;
49 -> 57 ;
58 [label="weight <= 70.5\ngini = 0.293\nsamples = 392\nvalue = [70, 322]", fillcolor="#64b2eb"] ;
57 -> 58 ;
59 [label="gini = 0.36\nsamples = 170\nvalue = [40, 130]", fillcolor="#76bbed"] ;
58 -> 59 ;
60 [label="gini = 0.234\nsamples = 222\nvalue = [30, 192]", fillcolor="#58ace9"] ;
58 -> 60 ;
61 [label="gini = 0.0\nsamples = 2\nvalue = [2, 0]", fillcolor="#e58139"] ;
57 -> 61 ;
62 [label="ap_hi <= 138.5\ngini = 0.362\nsamples = 20075\nvalue = [4773, 15302]", fillcolor="#77bced"] ;
0 -> 62 [labeldistance=2.5, labelangle=-45, headlabel="False"] ;
63 [label="cholesterol_3 <= 0.5\ngini = 0.478\nsamples = 6522\nvalue = [2580, 3942]", fillcolor="#bbddf6"] ;
62 -> 63 ;
64 [label="age <= 22142.5\ngini = 0.493\nsamples = 5258\nvalue = [2325, 2933]", fillcolor="#d6ebfa"] ;
63 -> 64 ;
65 [label="ap_lo <= 88.5\ngini = 0.497\nsamples = 4303\nvalue = [1990, 2313]", fillcolor="#e3f1fb"] ;
64 -> 65 ;
66 [label="age <= 15301.5\ngini = 0.5\nsamples = 2555\nvalue = [1279, 1276]", fillcolor="#ffffff"] ;
65 -> 66 ;
67 [label="gini = 0.446\nsamples = 134\nvalue = [89, 45]", fillcolor="#f2c19d"] ;
66 -> 67 ;
68 [label="gini = 0.5\nsamples = 2421\nvalue = [1190, 1231]", fillcolor="#f8fcfe"] ;
66 -> 68 ;
69 [label="smoke <= 0.5\ngini = 0.483\nsamples = 1748\nvalue = [711, 1037]", fillcolor="#c1e0f7"] ;
65 -> 69 ;
70 [label="gini = 0.475\nsamples = 1556\nvalue = [604, 952]", fillcolor="#b7dbf5"] ;
69 -> 70 ;
71 [label="gini = 0.493\nsamples = 192\nvalue = [107, 85]", fillcolor="#fae5d6"] ;
69 -> 71 ;
72 [label="smoke <= 0.5\ngini = 0.455\nsamples = 955\nvalue = [335, 620]", fillcolor="#a4d2f3"] ;
64 -> 72 ;
73 [label="age <= 22829.0\ngini = 0.448\nsamples = 878\nvalue = [298, 580]", fillcolor="#9fcff2"] ;
72 -> 73 ;
74 [label="gini = 0.468\nsamples = 420\nvalue = [157, 263]", fillcolor="#afd8f5"] ;
73 -> 74 ;
75 [label="gini = 0.426\nsamples = 458\nvalue = [141, 317]", fillcolor="#91c9f1"] ;
73 -> 75 ;
76 [label="height <= 169.5\ngini = 0.499\nsamples = 77\nvalue = [37, 40]", fillcolor="#f0f8fd"] ;
72 -> 76 ;
77 [label="gini = 0.45\nsamples = 41\nvalue = [14, 27]", fillcolor="#a0d0f2"] ;
76 -> 77 ;
78 [label="gini = 0.461\nsamples = 36\nvalue = [23, 13]", fillcolor="#f4c8a9"] ;
76 -> 78 ;
79 [label="gluc_3 <= 0.5\ngini = 0.322\nsamples = 1264\nvalue = [255, 1009]", fillcolor="#6bb6ec"] ;
63 -> 79 ;
80 [label="smoke <= 0.5\ngini = 0.27\nsamples = 752\nvalue = [121, 631]", fillcolor="#5fb0ea"] ;
79 -> 80 ;
81 [label="alco <= 0.5\ngini = 0.258\nsamples = 684\nvalue = [104, 580]", fillcolor="#5dafea"] ;
80 -> 81 ;
82 [label="gini = 0.249\nsamples = 645\nvalue = [94, 551]", fillcolor="#5baee9"] ;
81 -> 82 ;
83 [label="gini = 0.381\nsamples = 39\nvalue = [10, 29]", fillcolor="#7dbfee"] ;
81 -> 83 ;
84 [label="weight <= 64.25\ngini = 0.375\nsamples = 68\nvalue = [17, 51]", fillcolor="#7bbeee"] ;
80 -> 84 ;
85 [label="gini = 0.469\nsamples = 8\nvalue = [5, 3]", fillcolor="#f5cdb0"] ;
84 -> 85 ;
86 [label="gini = 0.32\nsamples = 60\nvalue = [12, 48]", fillcolor="#6ab6ec"] ;
84 -> 86 ;
87 [label="height <= 157.5\ngini = 0.386\nsamples = 512\nvalue = [134, 378]", fillcolor="#7fc0ee"] ;
79 -> 87 ;
88 [label="age <= 17335.5\ngini = 0.257\nsamples = 132\nvalue = [20, 112]", fillcolor="#5caeea"] ;
87 -> 88 ;
89 [label="gini = 0.375\nsamples = 4\nvalue = [3, 1]", fillcolor="#eeab7b"] ;
88 -> 89 ;
90 [label="gini = 0.23\nsamples = 128\nvalue = [17, 111]", fillcolor="#57ace9"] ;
88 -> 90 ;
91 [label="weight <= 83.5\ngini = 0.42\nsamples = 380\nvalue = [114, 266]", fillcolor="#8ec7f0"] ;
87 -> 91 ;
92 [label="gini = 0.464\nsamples = 216\nvalue = [79, 137]", fillcolor="#abd6f4"] ;
91 -> 92 ;
93 [label="gini = 0.336\nsamples = 164\nvalue = [35, 129]", fillcolor="#6fb8ec"] ;
91 -> 93 ;
94 [label="ap_hi <= 149.5\ngini = 0.271\nsamples = 13553\nvalue = [2193, 11360]", fillcolor="#5fb0ea"] ;
62 -> 94 ;
95 [label="height <= 147.5\ngini = 0.301\nsamples = 6864\nvalue = [1267, 5597]", fillcolor="#66b3eb"] ;
94 -> 95 ;
96 [label="age <= 22468.0\ngini = 0.449\nsamples = 106\nvalue = [36, 70]", fillcolor="#9fcff2"] ;
95 -> 96 ;
97 [label="height <= 142.5\ngini = 0.393\nsamples = 82\nvalue = [22, 60]", fillcolor="#82c1ef"] ;
96 -> 97 ;
98 [label="gini = 0.198\nsamples = 27\nvalue = [3, 24]", fillcolor="#52a9e8"] ;
97 -> 98 ;
99 [label="gini = 0.452\nsamples = 55\nvalue = [19, 36]", fillcolor="#a2d1f3"] ;
97 -> 99 ;
100 [label="ap_lo <= 82.5\ngini = 0.486\nsamples = 24\nvalue = [14, 10]", fillcolor="#f8dbc6"] ;
96 -> 100 ;
101 [label="gini = 0.198\nsamples = 9\nvalue = [8, 1]", fillcolor="#e89152"] ;
100 -> 101 ;
102 [label="gini = 0.48\nsamples = 15\nvalue = [6, 9]", fillcolor="#bddef6"] ;
100 -> 102 ;
103 [label="age <= 23269.5\ngini = 0.298\nsamples = 6758\nvalue = [1231, 5527]", fillcolor="#65b3eb"] ;
95 -> 103 ;
104 [label="gluc_3 <= 0.5\ngini = 0.305\nsamples = 6354\nvalue = [1191, 5163]", fillcolor="#67b4eb"] ;
103 -> 104 ;
105 [label="gini = 0.296\nsamples = 5717\nvalue = [1031, 4686]", fillcolor="#65b3eb"] ;
104 -> 105 ;
106 [label="gini = 0.376\nsamples = 637\nvalue = [160, 477]", fillcolor="#7bbeee"] ;
104 -> 106 ;
107 [label="age <= 23658.0\ngini = 0.178\nsamples = 404\nvalue = [40, 364]", fillcolor="#4fa8e8"] ;
103 -> 107 ;
108 [label="gini = 0.175\nsamples = 403\nvalue = [39, 364]", fillcolor="#4ea8e8"] ;
107 -> 108 ;
109 [label="gini = 0.0\nsamples = 1\nvalue = [1, 0]", fillcolor="#e58139"] ;
107 -> 109 ;
110 [label="ap_lo <= 68.0\ngini = 0.239\nsamples = 6689\nvalue = [926, 5763]", fillcolor="#59ade9"] ;
94 -> 110 ;
111 [label="ap_hi <= 500.5\ngini = 0.48\nsamples = 60\nvalue = [24, 36]", fillcolor="#bddef6"] ;
110 -> 111 ;
112 [label="height <= 172.5\ngini = 0.444\nsamples = 51\nvalue = [17, 34]", fillcolor="#9ccef2"] ;
111 -> 112 ;
113 [label="gini = 0.397\nsamples = 44\nvalue = [12, 32]", fillcolor="#83c2ef"] ;
112 -> 113 ;
114 [label="gini = 0.408\nsamples = 7\nvalue = [5, 2]", fillcolor="#efb388"] ;
112 -> 114 ;
115 [label="weight <= 79.0\ngini = 0.346\nsamples = 9\nvalue = [7, 2]", fillcolor="#eca572"] ;
111 -> 115 ;
116 [label="gini = 0.0\nsamples = 7\nvalue = [7, 0]", fillcolor="#e58139"] ;
115 -> 116 ;
117 [label="gini = 0.0\nsamples = 2\nvalue = [0, 2]", fillcolor="#399de5"] ;
115 -> 117 ;
118 [label="weight <= 40.5\ngini = 0.235\nsamples = 6629\nvalue = [902, 5727]", fillcolor="#58ace9"] ;
110 -> 118 ;
119 [label="ap_lo <= 80.0\ngini = 0.375\nsamples = 4\nvalue = [3, 1]", fillcolor="#eeab7b"] ;
118 -> 119 ;
120 [label="gini = 0.0\nsamples = 1\nvalue = [0, 1]", fillcolor="#399de5"] ;
119 -> 120 ;
121 [label="gini = 0.0\nsamples = 3\nvalue = [3, 0]", fillcolor="#e58139"] ;
119 -> 121 ;
122 [label="weight <= 52.5\ngini = 0.235\nsamples = 6625\nvalue = [899, 5726]", fillcolor="#58ace9"] ;
118 -> 122 ;
123 [label="gini = 0.354\nsamples = 109\nvalue = [25, 84]", fillcolor="#74baed"] ;
122 -> 123 ;
124 [label="gini = 0.232\nsamples = 6516\nvalue = [874, 5642]", fillcolor="#58ace9"] ;
122 -> 124 ;
}